solver_type L2R_L2LOSS_SVC_DUAL
nr_class 2
label 1 -1
nr_feature 256
bias -1
w
-0.9973307121591621 
-0.08879297229573212 
-0.3574780378917014 
0.5437961720433562 
0.2691779166633992 
-0.06117992642414222 
-0.137772288884868 
0.3546774800551106 
-0.2750814254491287 
0.1939432971427543 
0.08233860948101217 
0.2832907556131036 
0.2242070802964356 
0.5447590677126694 
0.06982843027704461 
0.3348472986675746 
-0.4584899825386821 
0.4622458997927805 
0.4777431656298574 
0.3210691729030754 
0.07293171694107528 
1.166253975306915 
0.4777699824646814 
0.5666699686954835 
0.4711472658233383 
0.8306390790246013 
0.7992802624642424 
0.9123407319357806 
0.6854386661276508 
0.8331457874873827 
0.7425851335067252 
0.6406545845495917 
-0.4364305517309114 
-0.08083846856287487 
0.293848882764486 
1.038714695127322 
1.356069848847071 
0.6559220063045664 
0.5507555251285032 
0.9273448602646117 
-0.1118094041000056 
0.4790949029739039 
0.6288998013615623 
1.57731831015642 
0.6172747090346858 
1.300292948144038 
0.8230390838364463 
0.6125493081684358 
-0.6927810491520545 
0.3052352111572146 
0.4029166328249792 
0.4991681427728125 
0.7960010599348015 
1.781649986993322 
0.693512398804434 
0.7909157624792855 
0.4216318393997653 
0.9449255823517874 
0.8740148381592744 
0.9154239907360179 
1.318843583424999 
1.004744105240882 
1.086018006985322 
0.5639889209504397 
-0.7211356553446903 
0.168611635276007 
0.05357929023255514 
0.2945617660228161 
-0.2231639992314747 
0.5974321428838822 
1.054331221786788 
0.9985041278824085 
0.6640923348563226 
1.73516297062148 
0.8288818347164757 
1.333932511257635 
0.02324996320710982 
1.425665315205162 
0.9173096111733171 
1.355409066982123 
-0.2409652020927241 
0.5986383631030112 
1.080412086116209 
0.8117745627665667 
0.3868360572121661 
0.9172433054506851 
1.385395590267463 
1.654712289064407 
0.6973651120231105 
0.9464336879253695 
1.75732812236139 
1.634255715860546 
1.116513157161239 
1.391380719554159 
1.271920047075754 
1.023323827055629 
-0.3034954485339416 
-0.0226131946031965 
0.1969662402192003 
0.9811031195608542 
0.3815015680853731 
0.4399873339791497 
-1.23893305867083 
0.9278328200134448 
0.5176465392234404 
1.859386685397743 
1.453418313737083 
2.34885883344741 
0.1689246217401062 
1.646200504720095 
0.9243859352505912 
1.172071495592565 
0.2243626608697239 
1.137771795226719 
0.9549337680103219 
1.418909037316296 
0.6287180413885537 
1.285488547067481 
0.7885456190365193 
1.25144148195199 
1.738596970970236 
1.083620564792857 
1.185816436357307 
1.046547490453688 
1.488645760682525 
0.8234416987934919 
0.7094687050809932 
0.576686289489901 
-0.4634445547675418 
-0.1513109537498446 
0.3489692859976717 
0.2594954821821848 
-0.03708386205303234 
0.5011308435964608 
0.7822964153722879 
0.6599451819794769 
0.2704967774242207 
0.58272442028453 
1.240264036700458 
0.4164130142694864 
1.128895090648484 
1.152716963379998 
1.175802977164118 
0.9815814443793837 
-0.008680479055735747 
1.032401119864518 
1.478471317102646 
1.214727792746256 
0.2972858715165329 
1.262701764306272 
1.3953921617668 
0.9611465759870211 
-0.1441289176565097 
0.6343938803263919 
1.907320942476493 
0.8173494845009317 
0.9597359133719596 
0.9106280722563975 
1.454674154330042 
1.027500223675385 
-0.3175965335862679 
0.3798110238720823 
0.2567880933960495 
1.044834983007172 
1.001155568223637 
1.543898166871233 
0.9619142285103514 
1.427304195403786 
0.5670664529656577 
1.549175606824919 
0.7638454118815118 
1.375772231352474 
1.177520366039221 
2.137316920009142 
1.738324836954115 
1.871257291597586 
0.03173763276013401 
0.9769203458091643 
0.5880701016675144 
1.012631299398975 
1.547491642949665 
2.176728082412896 
1.280379839437916 
1.556126343525 
0.7232785437636946 
1.539215941540058 
1.193193221074636 
1.112300576386246 
1.455520033297152 
1.223962299426515 
1.133142679751781 
0.6809929686454044 
-0.2719160658750347 
0.4371901433220785 
0.4936667952919207 
1.026585518778862 
1.100444383384027 
1.255350849815081 
1.172799901134945 
1.1438983946415 
0.4552970951353253 
0.9349065805470391 
0.5945648904956816 
0.9758518892159792 
0.3035572564413588 
1.330014479660732 
0.939467955194488 
1.244630039515505 
0.1062001870171694 
0.7058706980102514 
1.449374862351226 
1.410256051820933 
1.510449254960492 
1.257804756194887 
1.828354675708659 
1.781066947309293 
0.1975162130562232 
0.7003255664830691 
1.881049056891712 
1.230365977964487 
1.259581395444382 
1.11363192842164 
1.375094705563314 
0.7569779871214359 
0.4792248012559417 
1.461134709268229 
1.937267801440955 
1.2367105232859 
0.8465520910259232 
0.9107166416014775 
1.195586372630311 
1.066216124390857 
0.07430387681026364 
0.9746650442794423 
1.307278124157063 
1.010659740418069 
0.5803899016718079 
1.346931810531011 
1.192721362317454 
0.8440995285844153 
1.782828039201782 
2.151536494695967 
0.6459812801425966 
0.7314430855935181 
0.5355979294754178 
1.098075233224766 
0.9636801795687423 
0.6740401012477389 
1.937070107121694 
0.192592336075105 
0.4227642705884011 
0.5950806469013601 
1.064112865699152 
0.1275577044662901 
0.4912020633750908 
2.239493060109217 
